0.000687987473015501
0.0006879874730158
0.000687987473015964
-0.000553653984419849
-0.000553653984419768
-0.000553653984419725
0.000118710785213989
0.000118710785213947
0.000118710785214013
-0.000553653984419809
-0.000553653984419766
-0.000553653984419726
-0.000553653984419832
-0.000553653984419786
-0.000553653984419793
-0.000553653984419823
-0.00055365398441968
-0.000553653984419792
-0.000553653984419774
-0.000553653984419795
-0.000553653984419831
-0.000553653984419802
-0.000553653984419786
-0.000553653984419789
-0.000553653984419782
-0.000553653984419689
-0.0005536539844198
-0.000553653984419838
-0.000553653984419767
-0.000553653984419807
-0.000553653984419755
-0.00055365398441981
-0.000553653984419781
-0.000553653984419779
-0.000553653984419784
-0.000553653984419793
-0.000553653984419813
-0.000553653984419815
-0.000553653984419739
-0.000553653984419792
-0.000553653984419829
-0.000553653984419781
-0.000553653984419908
-0.000553653984419745
-0.000553653984419783
-0.000553653984419757
-0.000553653984419792
-0.000553653984419802
-0.000553653984419786
-0.000553653984419773
-0.000553653984419788
-0.000553653984419804
-0.000553653984419792
-0.000553653984419787
-0.000553653984419791
-0.000553653984419795
-0.000553653984419791
-0.000553653984419791
-0.000553653984419791
-0.000553653984419791
-0.000553653984419791
-0.000553653984419791
-0.000553653984419791
-0.000553653984419791
-0.000553653984419791
-0.000553653984419791
-0.000553653984419791
-0.000553653984419791
-0.000553653984419791
-0.000553653984419791
-0.000553653984419791
-0.000553653984419791
-0.000553653984419791
-0.000553653984419791
-0.000553653984419791
-0.000553653984419791
-0.000553653984419791
-2.08040909172164e-05
-2.08040909172164e-05
-2.08040909172164e-05
-2.08040909172164e-05
-2.08040909172164e-05
-2.08040909172164e-05
-2.08040909172164e-05
-2.08040909172164e-05
-2.08040909172164e-05
-2.08040909172164e-05
-2.08040909172164e-05
-2.08040909172164e-05
-2.08040909172164e-05
-2.08040909172164e-05
-2.08040909172164e-05
-2.08040909172164e-05
-2.08040909172164e-05
-2.08040909172164e-05
-2.08040909172164e-05
-2.08040909172164e-05
-2.08040909172164e-05
-2.08040909172164e-05
-2.08040909172164e-05
-2.08040909172164e-05
-2.08040909172164e-05
-2.08040909172164e-05
-2.08040909172164e-05
-2.08040909172164e-05
0.00042151999112186
0.00042151999112186
0.00042151999112186
0.00042151999112186
0.00042151999112186
0.00042151999112186
0.00042151999112186
0.00042151999112186
0.00042151999112186
0.00042151999112186
0.00042151999112186
0.00042151999112186
0.00042151999112186
0.00042151999112186
0.00042151999112186
0.00042151999112186
0.00042151999112186
0.00042151999112186
0.00042151999112186
0.000423850606572293
0.000423850606572293
0.000423850606572293
0.000423850606572293
0.000423850606572293
0.000423850606572293
0.000423850606572293
0.000423850606572293
0.000423850606572293
0.000423850606572293
0.000423850606572293
0.000423850606572293
0.00042151999112186
0.00042151999112186
0.00042151999112186
0.00042151999112186
0.00042151999112186
0.00042151999112186
0.00042151999112186
0.00042151999112186
0.00042151999112186
0.00042151999112186
0.00042151999112186
0.00042151999112186
0.00042151999112186
0.00042151999112186
0.00042151999112186
0.00042151999112186
0.00042151999112186
0.00042151999112186
0.00042151999112186
0.00042151999112186
0.00042151999112186
0.00042151999112186
0.00042151999112186
0.00042151999112186
0.00042151999112186
0.00042151999112186
0.00042151999112186
0.00042151999112186
0.00042151999112186
0.00042151999112186
0.00042151999112186
0.00042151999112186
0.00042151999112186
0.00042151999112186
0.00042151999112186
0.00042151999112186
0.00042151999112186
0.00042151999112186
0.00042151999112186
0.00042151999112186
0.00042151999112186
0.00042151999112186
0.00042151999112186
0.00042151999112186
0.00042151999112186
0.00042151999112186
0.00042151999112186
0.00042151999112186
0.00042151999112186
0.00042151999112186
0.00042151999112186
0.00042151999112186
0.00042151999112186
0.00042151999112186
0.00042151999112186
0.00042151999112186
0.00042151999112186
0.00042151999112186
0.00042151999112186
0.00042151999112186
0.00042151999112186
0.00042151999112186
0.00042151999112186
0.00042151999112186
0.00042151999112186
0.00042151999112186
0.00042151999112186
0.00042151999112186
0.00042151999112186
0.00042151999112186
0.00042151999112186
0.00042151999112186
0.00042151999112186
0.00042151999112186
0.00042151999112186
0.00042151999112186
0.00042151999112186
0.00042151999112186
0.00042151999112186
0.00042151999112186
0.00042151999112186
0.00042151999112186
0.00042151999112186
0.00042151999112186
0.00042151999112186
0.00042151999112186
0.00042151999112186
0.00042151999112186
0.00042151999112186
0.00042151999112186
0.00042151999112186
0.00042151999112186
0.00042151999112186
0.00042151999112186
0.00042151999112186
0.00147708773381857
0.00147708773381857
0.00147708773381857
0.00147708773381857
0.00147708773381857
0.00147708773381857
0.00147708773381857
0.00147708773381857
0.00147708773381857
0.00147708773381857
0.00147708773381857
0.00147708773381857
0.00147708773381857
0.00147708773381857
0.00147708773381857
0.00109774650394563
0.00109774650394563
0.00109774650394563
0.00147708773381857
0.00147708773381857
0.00147708773381857
0.000877528211724489
0.00147708773381857
0.00147708773381857
0.00147708773381857
0.00147708773381857
0.00147708773381857
0.00147708773381857
0.00147708773381857
0.00147708773381857
0.00147708773381857
0.00147708773381857
0.00147708773381857
0.00147708773381857
0.00147708773381857
0.00147708773381857
0.00147708773381857
0.00147708773381857
0.00147708773381857
0.00147708773381857
0.00147708773381857
0.00147708773381857
0.00147708773381857
0.00147708773381857
0.00147708773381857
0.00147708773381857
0.00147708773381857
0.00147708773381857
0.00147708773381857
0.00147708773381857
0.00147708773381857
0.00147708773381857
0.00147708773381857
0.00147708773381857
0.00147708773381857
0.00147708773381857
0.00147708773381857
0.00147708773381857
0.00147708773381857
0.00147708773381857
0.00147708773381857
0.00147708773381857
0.00147708773381857
0.00147708773381857
0.00147708773381857
0.00147708773381857
0.00147708773381857
0.00147708773381857
0.00147708773381857
0.00147708773381857
0.00147708773381857
0.00145612997823815
0.00145612997823815
0.00147708773381857
0.00147708773381857
0.00147708773381857
0.00147708773381857
0.00147708773381857
0.00147708773381857
0.00147708773381857
0.00147708773381857
0.00147708773381857
0.00147708773381857
0.00147708773381857
0.00147708773381857
0.00147708773381857
0.00147708773381857
0.00147708773381857
0.00147708773381857
0.00147708773381857
0.00147708773381857
0.00147708773381857
0.00147708773381857
0.00147708773381857
0.00147708773381857
0.000312532099266556
0.000312532099266556
0.000312532099266556
0.000312532099266556
0.000312532099266556
0.000312532099266556
0.000312532099266556
0.000312532099266556
0.000312532099266556
0.000312532099266556
0.000312532099266556
0.000312532099266556
0.000312532099266556
0.000312532099266556
0.000312532099266556
0.000312532099266556
0.000312532099266556
0.000312532099266556
0.000312532099266556
0.000312532099266556
0.000312532099266556
0.000312532099266556
0.000312532099266556
0.000312532099266556
0.000312532099266556
0.000312532099266556
0.000312532099266556
0.000312532099266556
0.000312532099266556
0.000312532099266556
0.000312532099266556
0.000312532099266556
0.000312532099266556
0.000312532099266556
0.000312532099266556
0.000312532099266556
0.000312532099266556
0.000312532099266556
0.000312532099266556
0.000312532099266556
0.000312532099266556
0.000312532099266556
0.000312532099266556
0.000312532099266556
0.000312532099266556
0.000312532099266556
0.000312532099266556
0.000312532099266556
0.000312532099266556
0.000312532099266556
0.000312532099266556
0.000312532099266556
0.000312532099266556
0.000312532099266556
0.000312532099266556
0.000312532099266556
0.000312532099266556
0.000312532099266556
0.000312532099266556
0.000312532099266556
0.000312532099266556
0.000312532099266556
0.000312532099266556
0.000312532099266556
0.000312532099266556
0.000312532099266556
0.000312532099266556
0.000312532099266556
0.000312532099266556
0.000312532099266556
0.000312532099266556
0.000312532099266556
0.000312532099266556
0.000312532099266556
0.000312532099266556
0.000312532099266556
0.000312532099266556
0.000312532099266556
0.000312532099266556
0.000363955212068978
0.000312532099266556
0.000312532099266556
0.000312532099266556
0.000312532099266556
0.000312532099266556
0.000312532099266556
0.000312532099266556
0.000312532099266556
0.000312532099266556
0.000312532099266556
0.000312532099266556
0.000803644754692324
0.000803644754692324
0.000803644754692324
0.000803644754692324
0.000803644754692324
0.000803644754692324
0.000803644754692324
0.000803644754692324
0.000803644754692324
0.000803644754692324
0.000803644754692324
0.000803644754692324
0.000803644754692324
0.000803644754692324
0.000803644754692324
0.000803644754692324
0.000803644754692324
0.000803644754692324
0.000803644754692324
0.000803644754692324
0.000803644754692324
0.000803644754692324
0.000803644754692324
0.000803644754692324
0.000803644754692324
0.000803644754692324
0.000803644754692324
0.000803644754692324
0.000803644754692324
0.000803644754692324
0.000803644754692324
0.000803644754692324
0.000803644754692324
0.000803644754692324
0.000803644754692324
0.000803644754692324
0.000803644754692324
0.000803644754692324
0.000803644754692324
0.000803644754692324
0.000244963816044494
0.000244963816044494
0.000803644754692324
0.000803644754692324
0.000803644754692324
0.000803644754692324
0.000803644754692324
0.000803644754692324
0.000803644754692324
0.000803644754692324
0.000803644754692324
0.000803644754692324
0.000803644754692324
0.000803644754692324
0.000803644754692324
0.000803644754692324
0.000803644754692324
0.000803644754692324
0.000443911642860084
0.000803644754692324
0.000803644754692324
0.000803644754692324
0.000803644754692324
0.000803644754692324
0.000803644754692324
0.000803644754692324
0.000803644754692324
0.000803644754692324
0.000683391415445791
0.000683391415445791
0.000803644754692324
0.000803644754692324
0.000803644754692324
0.000803644754692324
0.000803644754692324
0.000803644754692324
0.000803644754692324
0.000803644754692324
0.000803644754692324
0.000803644754692324
0.000803644754692324
0.000803644754692324
0.000803644754692324
0.000803644754692324
0.000244963816044494
0.000803644754692324
0.000803644754692324
0.000803644754692324
0.000803644754692324
0.000803644754692324
0.000803644754692324
0.000803644754692324
0.000803644754692324
0.000803644754692324
0.000803644754692324
0.000803644754692324
0.000803644754692324
0.000803644754692324
0.000803644754692324
0.000803644754692324
0.000803644754692324
0.000683391415445791
0.000683391415445791
0.000683391415445791
0.000683391415445791
0.000683391415445791
0.000683391415445791
0.000683391415445791
0.000683391415445791
0.000683391415445791
0.000683391415445791
0.000683391415445791
0.000683391415445791
0.000683391415445791
0.000683391415445791
0.000683391415445791
0.000683391415445791
0.000683391415445791
0.000683391415445791
0.000683391415445791
0.000683391415445791
0.000683391415445791
0.000683391415445791
0.000683391415445791
0.000683391415445791
0.000683391415445791
0.000683391415445791
0.000683391415445791
0.000683391415445791
0.000683391415445791
0.000683391415445791
0.000683391415445791
0.000683391415445791
0.000683391415445791
0.000683391415445791
0.000683391415445791
0.000683391415445791
0.000683391415445791
0.000683391415445791
0.000683391415445791
0.000683391415445791
0.000683391415445791
0.000683391415445791
0.000683391415445791
0.000683391415445791
0.000683391415445791
0.000683391415445791
0.000683391415445791
0.000683391415445791
0.000683391415445791
0.000683391415445791
0.000683391415445791
0.000683391415445791
0.000683391415445791
0.000683391415445791
0.000683391415445791
0.000683391415445791
0.000683391415445791
0.000683391415445791
0.000683391415445791
0.000683391415445791
0.000133336600976531
0.000133336600976531
0.000133336600976531
0.000133336600976531
0.000133336600976531
0.000133336600976531
0.000133336600976531
0.000133336600976531
0.000133336600976531
0.000133336600976531
0.000133336600976531
0.000133336600976531
0.000133336600976531
0.000133336600976531
0.000133336600976531
0.000133336600976531
0.000133336600976531
0.000133336600976531
0.000133336600976531
0.000133336600976531
0.000133336600976531
0.000133336600976531
0.000133336600976531
0.000133336600976531
0.000133336600976531
0.00062054647131776
0.00062054647131776
0.00062054647131776
0.00062054647131776
0.00062054647131776
0.00062054647131776
0.00062054647131776
0.00062054647131776
0.00062054647131776
0.00062054647131776
0.000216385589104298
0.00062054647131776
0.00062054647131776
0.00062054647131776
0.00062054647131776
0.00062054647131776
0.00062054647131776
0.00062054647131776
0.00062054647131776
0.00062054647131776
0.00062054647131776
-0.00039355772220393
0.00062054647131776
0.000368193700262481
0.00062054647131776
0.00062054647131776
0.00062054647131776
0.00062054647131776
0.00062054647131776
0.00062054647131776
0.00062054647131776
0.00062054647131776
0.00062054647131776
0.00062054647131776
0.00062054647131776
0.00062054647131776
0.00062054647131776
0.00062054647131776
0.00062054647131776
0.00062054647131776
0.00062054647131776
0.00062054647131776
0.00062054647131776
0.000243107158303646
-0.000186399628130263
3.66315412036681e-05
3.66315412036681e-05
0.000243107158303646
0.000243107158303646
0.000243107158303646
0.000243107158303646
0.000243107158303646
0.000243107158303646
0.000243107158303646
0.000243107158303646
0.000243107158303646
0.000243107158303646
0.000243107158303646
0.000243107158303646
0.00062054647131776
0.00062054647131776
0.000368193700262481
0.00062054647131776
0.00062054647131776
0.00062054647131776
0.00062054647131776
0.00062054647131776
0.00062054647131776
0.00062054647131776
0.00062054647131776
0.00062054647131776
0.00062054647131776
0.00062054647131776
0.00062054647131776
0.00062054647131776
0.00062054647131776
0.00062054647131776
0.000394227079087748
0.000394227079087748
0.000394227079087748
0.000949699995565107
0.00118230129815578
0.00118230129815578
0.00062054647131776
0.00062054647131776
0.00062054647131776
0.00062054647131776
0.00062054647131776
0.00062054647131776
0.00062054647131776
0.00062054647131776
0.00062054647131776
0.00062054647131776
0.00062054647131776
0.00062054647131776
0.00062054647131776
0.00062054647131776
0.00062054647131776
0.00062054647131776
0.00062054647131776
0.000598548347025601
0.000598548347025601
0.000598548347025601
0.000598548347025601
0.000598548347025601
0.000598548347025601
0.000598548347025601
0.000598548347025601
-0.00152229881510279
-0.00152229881510279
-0.00152229881510279
-0.00152229881510279
-0.00152229881510279
-0.00152229881510279
-0.00152229881510279
-0.00152229881510279
-0.00152229881510279
-0.00152229881510279
-0.00152229881510279
-0.00152229881510279
-0.00152229881510279
-0.00152229881510279
-0.00152229881510279
-0.00152229881510279
-0.00152229881510279
-0.00152229881510279
-0.0014879036753929
-0.0014879036753929
-0.0014879036753929
-0.0014879036753929
-0.0014879036753929
-0.0014879036753929
-0.0014879036753929
-0.0014879036753929
-0.0014879036753929
-0.0014879036753929
-0.0014879036753929
-0.0014879036753929
-0.0014879036753929
-0.0014879036753929
-0.0014879036753929
-0.0014879036753929
-0.0014879036753929
-0.0014879036753929
-0.0014879036753929
-0.0014879036753929
-0.0014879036753929
-0.0014879036753929
-0.0014879036753929
-0.0014879036753929
-0.0014879036753929
-0.0014879036753929
-0.0014879036753929
-0.0014879036753929
-0.0014879036753929
-0.0014879036753929
-0.0014879036753929
-0.0014879036753929
-0.0014879036753929
-0.0014879036753929
-0.00122781939230936
-0.0014879036753929
-0.0014879036753929
-0.0014879036753929
-0.0014879036753929
-0.0014879036753929
-0.0014879036753929
-0.0014879036753929
-0.0014879036753929
-0.0014879036753929
-0.0014879036753929
-0.0014879036753929
-0.0014879036753929
-0.0014879036753929
-0.0014879036753929
-0.0014879036753929
-0.0014879036753929
-0.0014879036753929
-0.0014879036753929
-0.0014879036753929
-0.00157821585214611
-0.00157821585214611
-0.00157821585214611
-0.00157821585214611
-0.00157821585214611
-0.00107297932513857
-0.00107297932513857
-0.00107297932513857
-0.00107297932513857
-0.00107297932513857
-0.00107297932513857
-0.00107297932513857
-0.00107297932513857
-0.00107297932513857
-0.00107297932513857
-0.00107297932513857
-0.00107297932513857
-0.00107297932513857
-0.00107297932513857
-0.00107297932513857
-0.00107297932513857
-0.00107297932513857
-0.00107297932513857
-0.00107297932513857
-0.00107297932513857
-0.00107297932513857
-0.00107297932513857
-0.00107297932513857
-0.00107297932513857
-0.00107297932513857
-0.00107297932513857
-0.00107297932513857
-0.00107297932513857
-0.00107297932513857
-0.00107297932513857
-0.00107297932513857
-0.00107297932513857
-0.00107297932513857
-0.00107297932513857
-0.00107297932513857
-0.00107297932513857
-0.00107297932513857
-0.00107297932513857
-0.00107297932513857
-0.00107297932513857
-0.00107297932513857
-0.00107297932513857
-0.00107297932513857
-0.00107297932513857
-0.00107297932513857
-0.00107297932513857
-0.00107297932513857
-0.00107297932513857
-0.00107297932513857
-0.00107297932513857
-0.00107297932513857
-0.00107297932513857
-0.00107297932513857
-0.00107297932513857
-0.00107297932513857
-0.00107297932513857
-0.00107297932513857
-0.00107297932513857
-0.00107297932513857
-0.00107297932513857
-0.00107297932513857
-0.00107297932513857
-0.00107297932513857
-0.00107297932513857
-0.00107297932513857
-0.00107297932513857
-0.00107297932513857
-0.00126977164569428
-0.00126977164569428
-0.00126977164569428
-0.00107297932513857
-0.00125613559731123
-0.00125613559731123
-0.00125613559731123
-0.00125613559731123
-0.00125613559731123
-0.00125613559731123
-0.00125613559731123
-0.00107297932513857
-0.00107297932513857
-0.00107297932513857
-0.00107297932513857
-0.00107297932513857
-0.00107297932513857
-0.00107297932513857
-0.00107297932513857
-0.00107297932513857
-0.00107297932513857
-0.00107297932513857
-0.00107297932513857
-0.00107297932513857
-0.00107297932513857
-0.00107297932513857
-0.00107297932513857
-0.00107297932513857
-0.00107297932513857
-0.00107297932513857
-0.00107297932513857
-0.00107297932513857
-0.00107297932513857
-0.00107297932513857
-0.00107297932513857
-0.00107297932513857
-0.00107297932513857
-0.00107297932513857
-0.00107297932513857
-0.000460905478441469
-0.000460905478441469
-0.000460905478441469
-0.000460905478441469
-0.000460905478441469
-0.000460905478441469
-0.000460905478441469
-0.000460905478441469
-0.000460905478441469
-0.000460905478441469
-0.000460905478441469
-0.000460905478441469
-0.000460905478441469
-0.000460905478441469
-0.000460905478441469
-0.000198878333151359
-0.000198878333151359
-0.000198878333151359
-0.000198878333151359
-0.000198878333151359
-0.000198878333151359
-0.000198878333151359
-0.000198878333151359
-0.000198878333151359
-0.000198878333151359
-0.000198878333151359
-0.000198878333151359
-0.000198878333151359
-0.000198878333151359
-0.000198878333151359
-0.000198878333151359
-0.000198878333151359
-0.000198878333151359
-0.000198878333151359
-0.000198878333151359
-0.000198878333151359
-0.000198878333151359
-0.000198878333151359
-0.000198878333151359
-0.000185611401695356
-0.000185611401695356
-0.000185611401695356
-0.000185611401695356
-0.000185611401695356
0.00122265061238791
0.00122265061238791
0.00148847594321194
0.00148847594321194
0.00148847594321194
0.00148847594321194
0.00148847594321194
0.00145966319642252
0.00145966319642252
0.00145966319642252
0.00145966319642252
0.00145966319642252
0.00145966319642252
0.00145966319642252
0.00145966319642252
0.00145966319642252
0.00145966319642252
0.00145966319642252
0.00145966319642252
0.00145966319642252
0.00145966319642252
0.00145966319642252
0.00145966319642252
0.00145966319642252
0.00145966319642252
0.00145966319642252
0.00145966319642252
0.00145966319642252
0.00145966319642252
0.00145966319642252
0.00145966319642252
0.00145966319642252
0.00145966319642252
0.00145966319642252
0.00145966319642252
0.00145966319642252
0.00145966319642252
0.00145966319642252
0.00145966319642252
0.00145966319642252
0.00145966319642252
0.00145966319642252
0.00145966319642252
0.00118674874063145
0.00118674874063145
0.00118674874063145
0.00118674874063145
0.00118674874063145
0.00118674874063145
0.00118674874063145
0.00118674874063145
0.000742698346035698
0.000742698346035698
0.000742698346035698
0.000742698346035698
0.000742698346035698
0.000742698346035698
0.000742698346035698
0.000742698346035698
0.000742698346035698
0.000742698346035698
0.000742698346035698
0.000742698346035698
0.000742698346035698
0.000742698346035698
0.000742698346035698
0.000742698346035698
0.000742698346035698
0.000742698346035698
0.000742698346035698
0.000742698346035698
0.000742698346035698
0.000742698346035698
0.000742698346035698
0.000742698346035698
0.000742698346035698
0.000742698346035698
0.000742698346035698
0.000742698346035698
0.000742698346035698
0.000742698346035698
0.000742698346035698
0.000742698346035698
0.000742698346035698
0.000742698346035698
0.000742698346035698
0.000742698346035698
0.000742698346035698
0.000742698346035698
0.000742698346035698
0.000742698346035698
0.000742698346035698
-9.56590330955759e-06
-9.56590330955759e-06
-9.56590330955759e-06
-9.56590330955759e-06
-9.56590330955759e-06
-9.56590330955759e-06
-9.56590330955759e-06
-9.56590330955759e-06
-0.000936191437206705
-9.56590330955759e-06
-9.56590330955759e-06
-9.56590330955759e-06
-9.56590330955759e-06
-9.56590330955759e-06
-9.56590330955759e-06
-9.56590330955759e-06
-9.56590330955759e-06
-9.56590330955759e-06
-9.56590330955759e-06
-9.56590330955759e-06
-9.56590330955759e-06
-9.56590330955759e-06
-9.56590330955759e-06
-9.56590330955759e-06
-9.56590330955759e-06
-9.56590330955759e-06
-9.56590330955759e-06
-9.56590330955759e-06
-9.56590330955759e-06
-9.56590330955759e-06
-9.56590330955759e-06
-9.56590330955759e-06
-9.56590330955759e-06
-9.56590330955759e-06
-9.56590330955759e-06
-9.56590330955759e-06
-9.56590330955759e-06
-9.56590330955759e-06
-9.56590330955759e-06
-9.56590330955759e-06
-9.56590330955759e-06
-9.56590330955759e-06
-9.56590330955759e-06
-9.56590330955759e-06
-9.56590330955759e-06
-9.56590330955759e-06
-9.56590330955759e-06
-9.56590330955759e-06
-9.56590330955759e-06
-9.56590330955759e-06
-9.56590330955759e-06
-9.56590330955759e-06
-9.56590330955759e-06
-9.56590330955759e-06
-9.56590330955759e-06
-9.56590330955759e-06
-9.56590330955759e-06
-9.56590330955759e-06
-9.56590330955759e-06
-9.56590330955759e-06
-9.56590330955759e-06
-9.56590330955759e-06
-9.56590330955759e-06
-9.56590330955759e-06
-9.56590330955759e-06
-9.56590330955759e-06
-9.56590330955759e-06
-9.56590330955759e-06
-9.56590330955759e-06
-9.56590330955759e-06
-9.56590330955759e-06
-9.56590330955759e-06
-9.56590330955759e-06
-0.000287157254739775
-0.000287157254739775
-0.000287157254739775
-0.000287157254739775
-0.000287157254739775
-0.000287157254739775
-0.000287157254739775
-0.000287157254739775
-0.000287157254739775
-0.000287157254739775
-0.000287157254739775
-0.000287157254739775
-0.000287157254739775
-0.000287157254739775
-0.000287157254739775
-0.000287157254739775
-0.000287157254739775
-0.000287157254739775
-0.000287157254739775
-0.000287157254739775
-0.000287157254739775
-0.000287157254739775
-0.000287157254739775
-0.000287157254739775
-0.000287157254739775
-0.000287157254739775
-0.000287157254739775
-0.000287157254739775
-0.000287157254739775
-0.000287157254739775
-0.000287157254739775
-0.000287157254739775
-0.000287157254739775
-0.000287157254739775
-0.000287157254739775
-0.000287157254739775
-0.000287157254739775
0.000215279363582628
0.000215279363582628
0.000215279363582628
0.000215279363582628
0.000215279363582628
0.000215279363582628
0.000215279363582628
0.000743558188850411
0.000743558188850411
0.000743558188850411
0.000743558188850411
0.000743558188850411
0.000743558188850411
0.000743558188850411
0.000743558188850411
0.00131449931799056
0.00131449931799056
0.00131449931799056
0.00131449931799056
0.00131449931799056
0.00131449931799056
0.00131449931799056
0.00131449931799056
0.00131449931799056
0.00131449931799056
0.00131449931799056
0.00131449931799056
0.00131449931799056
0.00131449931799056
0.00131449931799056
0.00131449931799056
0.00131449931799056
0.00131449931799056
0.00131449931799056
0.00131449931799056
0.00131449931799056
0.00131449931799056
0.00131449931799056
0.00131449931799056
0.00131449931799056
0.00131449931799056
0.00131449931799056
0.00131449931799056
0.00131449931799056
0.00131449931799056
0.00131449931799056
0.00131449931799056
0.00131449931799056
0.00131449931799056
0.00131449931799056
0.00131449931799056
0.00131449931799056
0.00131449931799056
0.00131449931799056
0.000187455355138808
0.000187455355138808
0.000811072550157582
0.000187455355138808
0.000187455355138808
0.000165101612699613
0.000165101612699613
0.000165101612699613
0.000165101612699613
0.000165101612699613
0.000187455355138808
0.000187455355138808
0.000187455355138808
0.000187455355138808
0.000187455355138808
0.000187455355138808
0.000187455355138808
0.000187455355138808
0.000187455355138808
0.000187455355138808
0.000187455355138808
0.000187455355138808
0.000187455355138808
0.000187455355138808
0.000187455355138808
0.000187455355138808
0.000187455355138808
0.000187455355138808
0.000187455355138808
0.000165101612699613
0.000187455355138808
0.000187455355138808
0.000187455355138808
0.000187455355138808
0.000187455355138808
0.000187455355138808
0.000187455355138808
0.000187455355138808
0.000187455355138808
0.000187455355138808
0.000187455355138808
0.000165101612699613
0.000187455355138808
0.000187455355138808
0.000187455355138808
0.000187455355138808
0.000187455355138808
0.000187455355138808
0.000187455355138808
0.000187455355138808
0.000187455355138808
0.000187455355138808
0.000187455355138808
0.000187455355138808
0.000187455355138808
0.000187455355138808
0.000187455355138808
0.000187455355138808
0.000187455355138808
0.000187455355138808
0.000187455355138808
0.000187455355138808
0.000187455355138808
0.000187455355138808
0.000137946544951617
0.000137946544951617
0.000137946544951617
0.000137946544951617
0.000137946544951617
0.000137946544951617
0.000137946544951617
0.000187455355138808
0.000137946544951617
0.000137946544951617
0.000137946544951617
0.000137946544951617
0.000137946544951617
0.000137946544951617
0.000137946544951617
0.000137946544951617
0.000137946544951617
0.000137946544951617
0.000137946544951617
0.000137946544951617
0.000137946544951617
0.000137946544951617
0.000137946544951617
0.000137946544951617
0.000137946544951617
0.000137946544951617
0.000137946544951617
0.000137946544951617
0.000137946544951617
0.000137946544951617
0.000137946544951617
0.000137946544951617
0.000834427095402352
0.000834427095402352
0.000834427095402352
0.000834427095402352
0.000834427095402352
0.000137946544951617
0.000137946544951617
0.000137946544951617
0.000137946544951617
0.000786520791451418
0.000786520791451418
0.000786520791451418
0.000786520791451418
0.000786520791451418
0.000786520791451418
0.000786520791451418
0.000786520791451418
0.00141767528974795
0.00136251769829169
0.00136251769829169
0.000116115193285824
0.000137946544951617
0.000137946544951617
0.000137946544951617
0.000137946544951617
0.000137946544951617
0.000872016841038194
0.000872016841038194
0.000872016841038194
0.000201367295310797
0.000201367295310797
0.000201367295310797
0.000201367295310797
