-0.000111116256831279
-0.000111116256831225
-0.000111116256831128
4.28110750737259e-05
4.28110750736066e-05
4.28110750736519e-05
0.000541578717437367
0.000541578717437277
0.000541578717437401
4.28110750736274e-05
4.28110750736502e-05
4.28110750736688e-05
4.28110750736723e-05
4.28110750736373e-05
4.28110750736438e-05
4.28110750736276e-05
4.28110750736429e-05
4.28110750736418e-05
4.28110750736367e-05
4.28110750736423e-05
4.28110750736473e-05
4.28110750736556e-05
4.28110750736694e-05
4.28110750735936e-05
4.28110750736449e-05
4.28110750736646e-05
4.28110750736495e-05
4.28110750736504e-05
4.28110750736383e-05
4.28110750736417e-05
4.28110750736414e-05
4.28110750736513e-05
4.28110750736615e-05
4.28110750736415e-05
4.28110750736347e-05
4.28110750736263e-05
4.28110750736407e-05
4.28110750736419e-05
4.28110750736517e-05
4.28110750736364e-05
4.28110750736377e-05
4.28110750736488e-05
4.28110750736414e-05
4.28110750736436e-05
4.28110750736421e-05
4.28110750736428e-05
4.28110750736438e-05
4.28110750736405e-05
4.2811075073644e-05
4.28110750736563e-05
4.28110750736338e-05
4.28110750736435e-05
4.28110750736418e-05
4.28110750736444e-05
4.28110750736431e-05
4.28110750736428e-05
4.28110750736614e-05
4.2811075073643e-05
4.2811075073643e-05
4.2811075073643e-05
4.2811075073643e-05
4.2811075073643e-05
4.2811075073643e-05
4.2811075073643e-05
4.2811075073643e-05
4.2811075073643e-05
4.2811075073643e-05
4.2811075073643e-05
4.2811075073643e-05
4.2811075073643e-05
4.2811075073643e-05
4.2811075073643e-05
4.2811075073643e-05
4.2811075073643e-05
4.2811075073643e-05
4.2811075073643e-05
4.2811075073643e-05
0.000309515098708385
0.000309515098708385
0.000309515098708385
0.000309515098708385
0.000309515098708385
0.000309515098708385
0.000309515098708385
0.000309515098708385
0.000309515098708385
0.000309515098708385
0.000309515098708385
0.000309515098708385
0.000309515098708385
0.000309515098708385
0.000309515098708385
0.000309515098708385
0.000309515098708385
0.000309515098708385
0.000309515098708385
0.000309515098708385
0.000309515098708385
0.000309515098708385
0.000309515098708385
0.000309515098708385
0.000309515098708385
0.000309515098708385
0.000309515098708385
0.000309515098708385
4.11882312980436e-05
4.11882312980436e-05
4.11882312980436e-05
4.11882312980436e-05
4.11882312980436e-05
4.11882312980436e-05
4.11882312980436e-05
4.11882312980436e-05
4.11882312980436e-05
4.11882312980436e-05
4.11882312980436e-05
4.11882312980436e-05
4.11882312980436e-05
4.11882312980436e-05
4.11882312980436e-05
4.11882312980436e-05
4.11882312980436e-05
4.11882312980436e-05
4.11882312980436e-05
-2.72965606601524e-06
-2.72965606601524e-06
-2.72965606601524e-06
-2.72965606601524e-06
-2.72965606601524e-06
-2.72965606601524e-06
-2.72965606601524e-06
-2.72965606601524e-06
-2.72965606601524e-06
-2.72965606601524e-06
-2.72965606601524e-06
-2.72965606601524e-06
4.11882312980436e-05
4.11882312980436e-05
4.11882312980436e-05
4.11882312980436e-05
4.11882312980436e-05
4.11882312980436e-05
4.11882312980436e-05
4.11882312980436e-05
4.11882312980436e-05
4.11882312980436e-05
4.11882312980436e-05
4.11882312980436e-05
4.11882312980436e-05
4.11882312980436e-05
4.11882312980436e-05
4.11882312980436e-05
4.11882312980436e-05
4.11882312980436e-05
4.11882312980436e-05
4.11882312980436e-05
4.11882312980436e-05
4.11882312980436e-05
4.11882312980436e-05
4.11882312980436e-05
4.11882312980436e-05
4.11882312980436e-05
4.11882312980436e-05
4.11882312980436e-05
4.11882312980436e-05
4.11882312980436e-05
4.11882312980436e-05
4.11882312980436e-05
4.11882312980436e-05
4.11882312980436e-05
4.11882312980436e-05
4.11882312980436e-05
4.11882312980436e-05
4.11882312980436e-05
4.11882312980436e-05
4.11882312980436e-05
4.11882312980436e-05
4.11882312980436e-05
4.11882312980436e-05
4.11882312980436e-05
4.11882312980436e-05
4.11882312980436e-05
4.11882312980436e-05
4.11882312980436e-05
4.11882312980436e-05
4.11882312980436e-05
4.11882312980436e-05
4.11882312980436e-05
4.11882312980436e-05
4.11882312980436e-05
4.11882312980436e-05
4.11882312980436e-05
4.11882312980436e-05
4.11882312980436e-05
4.11882312980436e-05
4.11882312980436e-05
4.11882312980436e-05
4.11882312980436e-05
4.11882312980436e-05
4.11882312980436e-05
4.11882312980436e-05
4.11882312980436e-05
4.11882312980436e-05
4.11882312980436e-05
4.11882312980436e-05
4.11882312980436e-05
4.11882312980436e-05
4.11882312980436e-05
4.11882312980436e-05
4.11882312980436e-05
4.11882312980436e-05
4.11882312980436e-05
4.11882312980436e-05
4.11882312980436e-05
4.11882312980436e-05
4.11882312980436e-05
4.11882312980436e-05
4.11882312980436e-05
4.11882312980436e-05
4.11882312980436e-05
4.11882312980436e-05
4.11882312980436e-05
4.11882312980436e-05
4.11882312980436e-05
4.11882312980436e-05
4.11882312980436e-05
4.11882312980436e-05
4.11882312980436e-05
4.11882312980436e-05
4.11882312980436e-05
4.11882312980436e-05
0.000245149304879385
0.000245149304879385
0.000245149304879385
0.000245149304879385
0.000245149304879385
0.000245149304879385
0.000245149304879385
0.000245149304879385
0.000245149304879385
0.000245149304879385
0.000245149304879385
0.000245149304879385
0.000245149304879385
0.000245149304879385
0.000245149304879385
0.00018399948723581
0.00018399948723581
0.00018399948723581
0.000245149304879385
0.000245149304879385
0.000245149304879385
-4.10411592278995e-05
0.000245149304879385
0.000245149304879385
0.000245149304879385
0.000245149304879385
0.000245149304879385
0.000245149304879385
0.000245149304879385
0.000245149304879385
0.000245149304879385
0.000245149304879385
0.000245149304879385
0.000245149304879385
0.000245149304879385
0.000245149304879385
0.000245149304879385
0.000245149304879385
0.000245149304879385
0.000245149304879385
0.000245149304879385
0.000245149304879385
0.000245149304879385
0.000245149304879385
0.000245149304879385
0.000245149304879385
0.000245149304879385
0.000245149304879385
0.000245149304879385
0.000245149304879385
0.000245149304879385
0.000245149304879385
0.000245149304879385
0.000245149304879385
0.000245149304879385
0.000245149304879385
0.000245149304879385
0.000245149304879385
0.000245149304879385
0.000245149304879385
0.000245149304879385
0.000245149304879385
0.000245149304879385
0.000245149304879385
0.000245149304879385
0.000245149304879385
0.000245149304879385
0.000245149304879385
0.000245149304879385
0.000245149304879385
0.000245149304879385
0.000211837691042099
0.000211837691042099
0.000245149304879385
0.000245149304879385
0.000245149304879385
0.000245149304879385
0.000245149304879385
0.000245149304879385
0.000245149304879385
0.000245149304879385
0.000245149304879385
0.000245149304879385
0.000245149304879385
0.000245149304879385
0.000245149304879385
0.000245149304879385
0.000245149304879385
0.000245149304879385
0.000245149304879385
0.000245149304879385
0.000245149304879385
0.000245149304879385
0.000245149304879385
0.000245149304879385
0.00139329159372907
0.00139329159372907
0.00139329159372907
0.00139329159372907
0.00139329159372907
0.00139329159372907
0.00139329159372907
0.00139329159372907
0.00139329159372907
0.00139329159372907
0.00139329159372907
0.00139329159372907
0.00139329159372907
0.00139329159372907
0.00139329159372907
0.00139329159372907
0.00139329159372907
0.00139329159372907
0.00139329159372907
0.00139329159372907
0.00139329159372907
0.00139329159372907
0.00139329159372907
0.00139329159372907
0.00139329159372907
0.00139329159372907
0.00139329159372907
0.00139329159372907
0.00139329159372907
0.00139329159372907
0.00139329159372907
0.00139329159372907
0.00139329159372907
0.00139329159372907
0.00139329159372907
0.00139329159372907
0.00139329159372907
0.00139329159372907
0.00139329159372907
0.00139329159372907
0.00139329159372907
0.00139329159372907
0.00139329159372907
0.00139329159372907
0.00139329159372907
0.00139329159372907
0.00139329159372907
0.00139329159372907
0.00139329159372907
0.00139329159372907
0.00139329159372907
0.00139329159372907
0.00139329159372907
0.00139329159372907
0.00139329159372907
0.00139329159372907
0.00139329159372907
0.00139329159372907
0.00139329159372907
0.00139329159372907
0.00139329159372907
0.00139329159372907
0.00139329159372907
0.00139329159372907
0.00139329159372907
0.00139329159372907
0.00139329159372907
0.00139329159372907
0.00139329159372907
0.00139329159372907
0.00139329159372907
0.00139329159372907
0.00139329159372907
0.00139329159372907
0.00139329159372907
0.00139329159372907
0.00139329159372907
0.00139329159372907
0.00139329159372907
0.00134850287981622
0.00139329159372907
0.00139329159372907
0.00139329159372907
0.00139329159372907
0.00139329159372907
0.00139329159372907
0.00139329159372907
0.00139329159372907
0.00139329159372907
0.00139329159372907
0.00139329159372907
0.00072763836252547
0.00072763836252547
0.00072763836252547
0.00072763836252547
0.00072763836252547
0.00072763836252547
0.00072763836252547
0.00072763836252547
0.00072763836252547
0.00072763836252547
0.00072763836252547
0.00072763836252547
0.00072763836252547
0.00072763836252547
0.00072763836252547
0.00072763836252547
0.00072763836252547
0.00072763836252547
0.00072763836252547
0.00072763836252547
0.00072763836252547
0.00072763836252547
0.00072763836252547
0.00072763836252547
0.00072763836252547
0.00072763836252547
0.00072763836252547
0.00072763836252547
0.00072763836252547
0.00072763836252547
0.00072763836252547
0.00072763836252547
0.00072763836252547
0.00072763836252547
0.00072763836252547
0.00072763836252547
0.00072763836252547
0.00072763836252547
0.00072763836252547
0.00072763836252547
0.000448028968755147
0.000448028968755147
0.00072763836252547
0.00072763836252547
0.00072763836252547
0.00072763836252547
0.00072763836252547
0.00072763836252547
0.00072763836252547
0.00072763836252547
0.00072763836252547
0.00072763836252547
0.00072763836252547
0.00072763836252547
0.00072763836252547
0.00072763836252547
0.00072763836252547
0.00072763836252547
0.000889554504662006
0.00072763836252547
0.00072763836252547
0.00072763836252547
0.00072763836252547
0.00072763836252547
0.00072763836252547
0.00072763836252547
0.00072763836252547
0.00072763836252547
0.00146584280746709
0.00146584280746709
0.00072763836252547
0.00072763836252547
0.00072763836252547
0.00072763836252547
0.00072763836252547
0.00072763836252547
0.00072763836252547
0.00072763836252547
0.00072763836252547
0.00072763836252547
0.00072763836252547
0.00072763836252547
0.00072763836252547
0.00072763836252547
0.000448028968755147
0.00072763836252547
0.00072763836252547
0.00072763836252547
0.00072763836252547
0.00072763836252547
0.00072763836252547
0.00072763836252547
0.00072763836252547
0.00072763836252547
0.00072763836252547
0.00072763836252547
0.00072763836252547
0.00072763836252547
0.00072763836252547
0.00072763836252547
0.00072763836252547
0.00146584280746709
0.00146584280746709
0.00146584280746709
0.00146584280746709
0.00146584280746709
0.00146584280746709
0.00146584280746709
0.00146584280746709
0.00146584280746709
0.00146584280746709
0.00146584280746709
0.00146584280746709
0.00146584280746709
0.00146584280746709
0.00146584280746709
0.00146584280746709
0.00146584280746709
0.00146584280746709
0.00146584280746709
0.00146584280746709
0.00146584280746709
0.00146584280746709
0.00146584280746709
0.00146584280746709
0.00146584280746709
0.00146584280746709
0.00146584280746709
0.00146584280746709
0.00146584280746709
0.00146584280746709
0.00146584280746709
0.00146584280746709
0.00146584280746709
0.00146584280746709
0.00146584280746709
0.00146584280746709
0.00146584280746709
0.00146584280746709
0.00146584280746709
0.00146584280746709
0.00146584280746709
0.00146584280746709
0.00146584280746709
0.00146584280746709
0.00146584280746709
0.00146584280746709
0.00146584280746709
0.00146584280746709
0.00146584280746709
0.00146584280746709
0.00146584280746709
0.00146584280746709
0.00146584280746709
0.00146584280746709
0.00146584280746709
0.00146584280746709
0.00146584280746709
0.00146584280746709
0.00146584280746709
0.00146584280746709
0.00118268897942456
0.00118268897942456
0.00118268897942456
0.00118268897942456
0.00118268897942456
0.00118268897942456
0.00118268897942456
0.00118268897942456
0.00118268897942456
0.00118268897942456
0.00118268897942456
0.00118268897942456
0.00118268897942456
0.00118268897942456
0.00118268897942456
0.00118268897942456
0.00118268897942456
0.00118268897942456
0.00118268897942456
0.00118268897942456
0.00118268897942456
0.00118268897942456
0.00118268897942456
0.00118268897942456
0.00118268897942456
-0.00163273914215983
-0.00163273914215983
-0.00163273914215983
-0.00163273914215983
-0.00163273914215983
-0.00163273914215983
-0.00163273914215983
-0.00163273914215983
-0.00163273914215983
-0.00163273914215983
-0.00140808388638749
-0.00163273914215983
-0.00163273914215983
-0.00163273914215983
-0.00163273914215983
-0.00163273914215983
-0.00163273914215983
-0.00163273914215983
-0.00163273914215983
-0.00163273914215983
-0.00163273914215983
-0.00128778773683612
-0.00163273914215983
-0.00122471417689846
-0.00163273914215983
-0.00163273914215983
-0.00163273914215983
-0.00163273914215983
-0.00163273914215983
-0.00163273914215983
-0.00163273914215983
-0.00163273914215983
-0.00163273914215983
-0.00163273914215983
-0.00163273914215983
-0.00163273914215983
-0.00163273914215983
-0.00163273914215983
-0.00163273914215983
-0.00163273914215983
-0.00163273914215983
-0.00163273914215983
-0.00163273914215983
-0.00161875294431942
-0.00118877224901161
-0.00156478682335283
-0.00156478682335283
-0.00161875294431942
-0.00161875294431942
-0.00161875294431942
-0.00161875294431942
-0.00161875294431942
-0.00161875294431942
-0.00161875294431942
-0.00161875294431942
-0.00161875294431942
-0.00161875294431942
-0.00161875294431942
-0.00161875294431942
-0.00163273914215983
-0.00163273914215983
-0.00122471417689846
-0.00163273914215983
-0.00163273914215983
-0.00163273914215983
-0.00163273914215983
-0.00163273914215983
-0.00163273914215983
-0.00163273914215983
-0.00163273914215983
-0.00163273914215983
-0.00163273914215983
-0.00163273914215983
-0.00163273914215983
-0.00163273914215983
-0.00163273914215983
-0.00163273914215983
-0.00157000884566363
-0.00157000884566363
-0.00157000884566363
-0.000526161291085202
-0.000562397405652658
-0.000562397405652658
-0.00163273914215983
-0.00163273914215983
-0.00163273914215983
-0.00163273914215983
-0.00163273914215983
-0.00163273914215983
-0.00163273914215983
-0.00163273914215983
-0.00163273914215983
-0.00163273914215983
-0.00163273914215983
-0.00163273914215983
-0.00163273914215983
-0.00163273914215983
-0.00163273914215983
-0.00163273914215983
-0.00163273914215983
-0.00199565299247984
-0.00199565299247984
-0.00199565299247984
-0.00199565299247984
-0.00199565299247984
-0.00199565299247984
-0.00199565299247984
-0.00199565299247984
-0.000246804110368981
-0.000246804110368981
-0.000246804110368981
-0.000246804110368981
-0.000246804110368981
-0.000246804110368981
-0.000246804110368981
-0.000246804110368981
-0.000246804110368981
-0.000246804110368981
-0.000246804110368981
-0.000246804110368981
-0.000246804110368981
-0.000246804110368981
-0.000246804110368981
-0.000246804110368981
-0.000246804110368981
-0.000246804110368981
-0.000427070160693415
-0.000427070160693415
-0.000427070160693415
-0.000427070160693415
-0.000427070160693415
-0.000427070160693415
-0.000427070160693415
-0.000427070160693415
-0.000427070160693415
-0.000427070160693415
-0.000427070160693415
-0.000427070160693415
-0.000427070160693415
-0.000427070160693415
-0.000427070160693415
-0.000427070160693415
-0.000427070160693415
-0.000427070160693415
-0.000427070160693415
-0.000427070160693415
-0.000427070160693415
-0.000427070160693415
-0.000427070160693415
-0.000427070160693415
-0.000427070160693415
-0.000427070160693415
-0.000427070160693415
-0.000427070160693415
-0.000427070160693415
-0.000427070160693415
-0.000427070160693415
-0.000427070160693415
-0.000427070160693415
-0.000427070160693415
-0.000504764373337897
-0.000427070160693415
-0.000427070160693415
-0.000427070160693415
-0.000427070160693415
-0.000427070160693415
-0.000427070160693415
-0.000427070160693415
-0.000427070160693415
-0.000427070160693415
-0.000427070160693415
-0.000427070160693415
-0.000427070160693415
-0.000427070160693415
-0.000427070160693415
-0.000427070160693415
-0.000427070160693415
-0.000427070160693415
-0.000427070160693415
-0.000427070160693415
0.000333462200328577
0.000333462200328577
0.000333462200328577
0.000333462200328577
0.000333462200328577
0.000954003400376784
0.000954003400376784
0.000954003400376784
0.000954003400376784
0.000954003400376784
0.000954003400376784
0.000954003400376784
0.000954003400376784
0.000954003400376784
0.000954003400376784
0.000954003400376784
0.000954003400376784
0.000954003400376784
0.000954003400376784
0.000954003400376784
0.000954003400376784
0.000954003400376784
0.000954003400376784
0.000954003400376784
0.000954003400376784
0.000954003400376784
0.000954003400376784
0.000954003400376784
0.000954003400376784
0.000954003400376784
0.000954003400376784
0.000954003400376784
0.000954003400376784
0.000954003400376784
0.000954003400376784
0.000954003400376784
0.000954003400376784
0.000954003400376784
0.000954003400376784
0.000954003400376784
0.000954003400376784
0.000954003400376784
0.000954003400376784
0.000954003400376784
0.000954003400376784
0.000954003400376784
0.000954003400376784
0.000954003400376784
0.000954003400376784
0.000954003400376784
0.000954003400376784
0.000954003400376784
0.000954003400376784
0.000954003400376784
0.000954003400376784
0.000954003400376784
0.000954003400376784
0.000954003400376784
0.000954003400376784
0.000954003400376784
0.000954003400376784
0.000954003400376784
0.000954003400376784
0.000954003400376784
0.000954003400376784
0.000954003400376784
0.000954003400376784
0.000954003400376784
0.000954003400376784
0.000954003400376784
0.000954003400376784
0.000954003400376784
0.00023058514121747
0.00023058514121747
0.00023058514121747
0.000954003400376784
0.000957260401142498
0.000957260401142498
0.000957260401142498
0.000957260401142498
0.000957260401142498
0.000957260401142498
0.000957260401142498
0.000954003400376784
0.000954003400376784
0.000954003400376784
0.000954003400376784
0.000954003400376784
0.000954003400376784
0.000954003400376784
0.000954003400376784
0.000954003400376784
0.000954003400376784
0.000954003400376784
0.000954003400376784
0.000954003400376784
0.000954003400376784
0.000954003400376784
0.000954003400376784
0.000954003400376784
0.000954003400376784
0.000954003400376784
0.000954003400376784
0.000954003400376784
0.000954003400376784
0.000954003400376784
0.000954003400376784
0.000954003400376784
0.000954003400376784
0.000954003400376784
0.000954003400376784
0.00129266198910426
0.00129266198910426
0.00129266198910426
0.00129266198910426
0.00129266198910426
0.00129266198910426
0.00129266198910426
0.00129266198910426
0.00129266198910426
0.00129266198910426
0.00129266198910426
0.00129266198910426
0.00129266198910426
0.00129266198910426
0.00129266198910426
0.00133363417929701
0.00133363417929701
0.00133363417929701
0.00133363417929701
0.00133363417929701
0.00133363417929701
0.00133363417929701
0.00133363417929701
0.00133363417929701
0.00133363417929701
0.00133363417929701
0.00133363417929701
0.00133363417929701
0.00133363417929701
0.00133363417929701
0.00133363417929701
0.00133363417929701
0.00133363417929701
0.00133363417929701
0.00133363417929701
0.00133363417929701
0.00133363417929701
0.00133363417929701
0.00133363417929701
0.00128156990911562
0.00128156990911562
0.00128156990911562
0.00128156990911562
0.00128156990911562
0.000207294101225488
0.000207294101225488
0.000213041496386463
0.000213041496386463
0.000213041496386463
0.000213041496386463
0.000213041496386463
0.000242753008492394
0.000242753008492394
0.000242753008492394
0.000242753008492394
0.000242753008492394
0.000242753008492394
0.000242753008492394
0.000242753008492394
0.000242753008492394
0.000242753008492394
0.000242753008492394
0.000242753008492394
0.000242753008492394
0.000242753008492394
0.000242753008492394
0.000242753008492394
0.000242753008492394
0.000242753008492394
0.000242753008492394
0.000242753008492394
0.000242753008492394
0.000242753008492394
0.000242753008492394
0.000242753008492394
0.000242753008492394
0.000242753008492394
0.000242753008492394
0.000242753008492394
0.000242753008492394
0.000242753008492394
0.000242753008492394
0.000242753008492394
0.000242753008492394
0.000242753008492394
0.000242753008492394
0.000242753008492394
0.000235999893636339
0.000235999893636339
0.000235999893636339
0.000235999893636339
0.000235999893636339
0.000235999893636339
0.000235999893636339
0.000235999893636339
0.000448877784892926
0.000448877784892926
0.000448877784892926
0.000448877784892926
0.000448877784892926
0.000448877784892926
0.000448877784892926
0.000448877784892926
0.000448877784892926
0.000448877784892926
0.000448877784892926
0.000448877784892926
0.000448877784892926
0.000448877784892926
0.000448877784892926
0.000448877784892926
0.000448877784892926
0.000448877784892926
0.000448877784892926
0.000448877784892926
0.000448877784892926
0.000448877784892926
0.000448877784892926
0.000448877784892926
0.000448877784892926
0.000448877784892926
0.000448877784892926
0.000448877784892926
0.000448877784892926
0.000448877784892926
0.000448877784892926
0.000448877784892926
0.000448877784892926
0.000448877784892926
0.000448877784892926
0.000448877784892926
0.000448877784892926
0.000448877784892926
0.000448877784892926
0.000448877784892926
0.000448877784892926
-0.000108011298090917
-0.000108011298090917
-0.000108011298090917
-0.000108011298090917
-0.000108011298090917
-0.000108011298090917
-0.000108011298090917
-0.000108011298090917
6.40709369937961e-05
-0.000108011298090917
-0.000108011298090917
-0.000108011298090917
-0.000108011298090917
-0.000108011298090917
-0.000108011298090917
-0.000108011298090917
-0.000108011298090917
-0.000108011298090917
-0.000108011298090917
-0.000108011298090917
-0.000108011298090917
-0.000108011298090917
-0.000108011298090917
-0.000108011298090917
-0.000108011298090917
-0.000108011298090917
-0.000108011298090917
-0.000108011298090917
-0.000108011298090917
-0.000108011298090917
-0.000108011298090917
-0.000108011298090917
-0.000108011298090917
-0.000108011298090917
-0.000108011298090917
-0.000108011298090917
-0.000108011298090917
-0.000108011298090917
-0.000108011298090917
-0.000108011298090917
-0.000108011298090917
-0.000108011298090917
-0.000108011298090917
-0.000108011298090917
-0.000108011298090917
-0.000108011298090917
-0.000108011298090917
-0.000108011298090917
-0.000108011298090917
-0.000108011298090917
-0.000108011298090917
-0.000108011298090917
-0.000108011298090917
-0.000108011298090917
-0.000108011298090917
-0.000108011298090917
-0.000108011298090917
-0.000108011298090917
-0.000108011298090917
-0.000108011298090917
-0.000108011298090917
-0.000108011298090917
-0.000108011298090917
-0.000108011298090917
-0.000108011298090917
-0.000108011298090917
-0.000108011298090917
-0.000108011298090917
-0.000108011298090917
-0.000108011298090917
-0.000108011298090917
-0.000108011298090917
-0.000108011298090917
0.00119832828090924
0.00119832828090924
0.00119832828090924
0.00119832828090924
0.00119832828090924
0.00119832828090924
0.00119832828090924
0.00119832828090924
0.00119832828090924
0.00119832828090924
0.00119832828090924
0.00119832828090924
0.00119832828090924
0.00119832828090924
0.00119832828090924
0.00119832828090924
0.00119832828090924
0.00119832828090924
0.00119832828090924
0.00119832828090924
0.00119832828090924
0.00119832828090924
0.00119832828090924
0.00119832828090924
0.00119832828090924
0.00119832828090924
0.00119832828090924
0.00119832828090924
0.00119832828090924
0.00119832828090924
0.00119832828090924
0.00119832828090924
0.00119832828090924
0.00119832828090924
0.00119832828090924
0.00119832828090924
0.00119832828090924
0.00141164565879215
0.00141164565879215
0.00141164565879215
0.00141164565879215
0.00141164565879215
0.00141164565879215
0.00141164565879215
0.00135532419948565
0.00135532419948565
0.00135532419948565
0.00135532419948565
0.00135532419948565
0.00135532419948565
0.00135532419948565
0.00135532419948565
0.00140537290856323
0.00140537290856323
0.00140537290856323
0.00140537290856323
0.00140537290856323
0.00140537290856323
0.00140537290856323
0.00140537290856323
0.00140537290856323
0.00140537290856323
0.00140537290856323
0.00140537290856323
0.00140537290856323
0.00140537290856323
0.00140537290856323
0.00140537290856323
0.00140537290856323
0.00140537290856323
0.00140537290856323
0.00140537290856323
0.00140537290856323
0.00140537290856323
0.00140537290856323
0.00140537290856323
0.00140537290856323
0.00140537290856323
0.00140537290856323
0.00140537290856323
0.00140537290856323
0.00140537290856323
0.00140537290856323
0.00140537290856323
0.00140537290856323
0.00140537290856323
0.00140537290856323
0.00140537290856323
0.00140537290856323
0.00140537290856323
0.00140537290856323
0.00126129248095408
0.00126129248095408
0.00233762302569928
0.00126129248095408
0.00126129248095408
0.00110904857918522
0.00110904857918522
0.00110904857918522
0.00110904857918522
0.00110904857918522
0.00126129248095408
0.00126129248095408
0.00126129248095408
0.00126129248095408
0.00126129248095408
0.00126129248095408
0.00126129248095408
0.00126129248095408
0.00126129248095408
0.00126129248095408
0.00126129248095408
0.00126129248095408
0.00126129248095408
0.00126129248095408
0.00126129248095408
0.00126129248095408
0.00126129248095408
0.00126129248095408
0.00126129248095408
0.00110904857918522
0.00126129248095408
0.00126129248095408
0.00126129248095408
0.00126129248095408
0.00126129248095408
0.00126129248095408
0.00126129248095408
0.00126129248095408
0.00126129248095408
0.00126129248095408
0.00126129248095408
0.00110904857918522
0.00126129248095408
0.00126129248095408
0.00126129248095408
0.00126129248095408
0.00126129248095408
0.00126129248095408
0.00126129248095408
0.00126129248095408
0.00126129248095408
0.00126129248095408
0.00126129248095408
0.00126129248095408
0.00126129248095408
0.00126129248095408
0.00126129248095408
0.00126129248095408
0.00126129248095408
0.00126129248095408
0.00126129248095408
0.00126129248095408
0.00126129248095408
0.00126129248095408
0.00116434224244233
0.00116434224244233
0.00116434224244233
0.00116434224244233
0.00116434224244233
0.00116434224244233
0.00116434224244233
0.00126129248095408
0.00116434224244233
0.00116434224244233
0.00116434224244233
0.00116434224244233
0.00116434224244233
0.00116434224244233
0.00116434224244233
0.00116434224244233
0.00116434224244233
0.00116434224244233
0.00116434224244233
0.00116434224244233
0.00116434224244233
0.00116434224244233
0.00116434224244233
0.00116434224244233
0.00116434224244233
0.00116434224244233
0.00116434224244233
0.00116434224244233
0.00116434224244233
0.00116434224244233
0.00116434224244233
0.00116434224244233
0.000162567138710399
0.000162567138710399
0.000162567138710399
0.000162567138710399
0.000162567138710399
0.00116434224244233
0.00116434224244233
0.00116434224244233
0.00116434224244233
0.00227636957408632
0.00227636957408632
0.00227636957408632
0.00227636957408632
0.00227636957408632
0.00227636957408632
0.00227636957408632
0.00227636957408632
0.00124290030350044
0.0011055897166836
0.0011055897166836
0.00100660247823151
0.00116434224244233
0.00116434224244233
0.00116434224244233
0.00116434224244233
0.00116434224244233
0.000130286804535295
0.000130286804535295
0.000130286804535295
0.00109229799905611
0.00109229799905611
0.00109229799905611
0.00109229799905611
