0.00068798747301556
0.000687987473015855
0.00068798747301606
-0.000553653984419898
-0.000553653984419701
-0.000553653984419798
0.000118710785214075
0.000118710785213955
0.000118710785214028
-0.000553653984419752
-0.000553653984419749
-0.000553653984419779
-0.000553653984419746
-0.000553653984419754
-0.000553653984419727
-0.000553653984419766
-0.000553653984419816
-0.000553653984419804
-0.00055365398441972
-0.000553653984419754
-0.000553653984419757
-0.000553653984419787
-0.000553653984419788
-0.000553653984419682
-0.000553653984419773
-0.000553653984419704
-0.000553653984419753
-0.000553653984419745
-0.000553653984419795
-0.00055365398441978
-0.000553653984419748
-0.000553653984419762
-0.000553653984419757
-0.000553653984419733
-0.000553653984419758
-0.000553653984419809
-0.00055365398441974
-0.000553653984419749
-0.000553653984419751
-0.000553653984419745
-0.000553653984419759
-0.000553653984419749
-0.000553653984419836
-0.000553653984419754
-0.000553653984419723
-0.000553653984419741
-0.000553653984419763
-0.000553653984419761
-0.000553653984419771
-0.000553653984419746
-0.000553653984419752
-0.000553653984419743
-0.000553653984419757
-0.00055365398441975
-0.000553653984419755
-0.000553653984419772
-0.000553653984419756
-0.000553653984419756
-0.000553653984419756
-0.000553653984419756
-0.000553653984419756
-0.000553653984419756
-0.000553653984419756
-0.000553653984419756
-0.000553653984419756
-0.000553653984419756
-0.000553653984419756
-0.000553653984419756
-0.000553653984419756
-0.000553653984419756
-0.000553653984419756
-0.000553653984419756
-0.000553653984419756
-0.000553653984419756
-0.000553653984419756
-0.000553653984419756
-0.000553653984419756
-2.08040909172239e-05
-2.08040909172239e-05
-2.08040909172239e-05
-2.08040909172239e-05
-2.08040909172239e-05
-2.08040909172239e-05
-2.08040909172239e-05
-2.08040909172239e-05
-2.08040909172239e-05
-2.08040909172239e-05
-2.08040909172239e-05
-2.08040909172239e-05
-2.08040909172239e-05
-2.08040909172239e-05
-2.08040909172239e-05
-2.08040909172239e-05
-2.08040909172239e-05
-2.08040909172239e-05
-2.08040909172239e-05
-2.08040909172239e-05
-2.08040909172239e-05
-2.08040909172239e-05
-2.08040909172239e-05
-2.08040909172239e-05
-2.08040909172239e-05
-2.08040909172239e-05
-2.08040909172239e-05
-2.08040909172239e-05
0.000421519991121903
0.000421519991121903
0.000421519991121903
0.000421519991121903
0.000421519991121903
0.000421519991121903
0.000421519991121903
0.000421519991121903
0.000421519991121903
0.000421519991121903
0.000421519991121903
0.000421519991121903
0.000421519991121903
0.000421519991121903
0.000421519991121903
0.000421519991121903
0.000421519991121903
0.000421519991121903
0.000421519991121903
0.000423850606572349
0.000423850606572349
0.000423850606572349
0.000423850606572349
0.000423850606572349
0.000423850606572349
0.000423850606572349
0.000423850606572349
0.000423850606572349
0.000423850606572349
0.000423850606572349
0.000423850606572349
0.000421519991121903
0.000421519991121903
0.000421519991121903
0.000421519991121903
0.000421519991121903
0.000421519991121903
0.000421519991121903
0.000421519991121903
0.000421519991121903
0.000421519991121903
0.000421519991121903
0.000421519991121903
0.000421519991121903
0.000421519991121903
0.000421519991121903
0.000421519991121903
0.000421519991121903
0.000421519991121903
0.000421519991121903
0.000421519991121903
0.000421519991121903
0.000421519991121903
0.000421519991121903
0.000421519991121903
0.000421519991121903
0.000421519991121903
0.000421519991121903
0.000421519991121903
0.000421519991121903
0.000421519991121903
0.000421519991121903
0.000421519991121903
0.000421519991121903
0.000421519991121903
0.000421519991121903
0.000421519991121903
0.000421519991121903
0.000421519991121903
0.000421519991121903
0.000421519991121903
0.000421519991121903
0.000421519991121903
0.000421519991121903
0.000421519991121903
0.000421519991121903
0.000421519991121903
0.000421519991121903
0.000421519991121903
0.000421519991121903
0.000421519991121903
0.000421519991121903
0.000421519991121903
0.000421519991121903
0.000421519991121903
0.000421519991121903
0.000421519991121903
0.000421519991121903
0.000421519991121903
0.000421519991121903
0.000421519991121903
0.000421519991121903
0.000421519991121903
0.000421519991121903
0.000421519991121903
0.000421519991121903
0.000421519991121903
0.000421519991121903
0.000421519991121903
0.000421519991121903
0.000421519991121903
0.000421519991121903
0.000421519991121903
0.000421519991121903
0.000421519991121903
0.000421519991121903
0.000421519991121903
0.000421519991121903
0.000421519991121903
0.000421519991121903
0.000421519991121903
0.000421519991121903
0.000421519991121903
0.000421519991121903
0.000421519991121903
0.000421519991121903
0.000421519991121903
0.000421519991121903
0.000421519991121903
0.000421519991121903
0.000421519991121903
0.000421519991121903
0.000421519991121903
0.000421519991121903
0.000421519991121903
0.000421519991121903
0.00147708773381859
0.00147708773381859
0.00147708773381859
0.00147708773381859
0.00147708773381859
0.00147708773381859
0.00147708773381859
0.00147708773381859
0.00147708773381859
0.00147708773381859
0.00147708773381859
0.00147708773381859
0.00147708773381859
0.00147708773381859
0.00147708773381859
0.00109774650394565
0.00109774650394565
0.00109774650394565
0.00147708773381859
0.00147708773381859
0.00147708773381859
0.00087752821172455
0.00147708773381859
0.00147708773381859
0.00147708773381859
0.00147708773381859
0.00147708773381859
0.00147708773381859
0.00147708773381859
0.00147708773381859
0.00147708773381859
0.00147708773381859
0.00147708773381859
0.00147708773381859
0.00147708773381859
0.00147708773381859
0.00147708773381859
0.00147708773381859
0.00147708773381859
0.00147708773381859
0.00147708773381859
0.00147708773381859
0.00147708773381859
0.00147708773381859
0.00147708773381859
0.00147708773381859
0.00147708773381859
0.00147708773381859
0.00147708773381859
0.00147708773381859
0.00147708773381859
0.00147708773381859
0.00147708773381859
0.00147708773381859
0.00147708773381859
0.00147708773381859
0.00147708773381859
0.00147708773381859
0.00147708773381859
0.00147708773381859
0.00147708773381859
0.00147708773381859
0.00147708773381859
0.00147708773381859
0.00147708773381859
0.00147708773381859
0.00147708773381859
0.00147708773381859
0.00147708773381859
0.00147708773381859
0.00147708773381859
0.00145612997823818
0.00145612997823818
0.00147708773381859
0.00147708773381859
0.00147708773381859
0.00147708773381859
0.00147708773381859
0.00147708773381859
0.00147708773381859
0.00147708773381859
0.00147708773381859
0.00147708773381859
0.00147708773381859
0.00147708773381859
0.00147708773381859
0.00147708773381859
0.00147708773381859
0.00147708773381859
0.00147708773381859
0.00147708773381859
0.00147708773381859
0.00147708773381859
0.00147708773381859
0.00147708773381859
0.00031253209926645
0.00031253209926645
0.00031253209926645
0.00031253209926645
0.00031253209926645
0.00031253209926645
0.00031253209926645
0.00031253209926645
0.00031253209926645
0.00031253209926645
0.00031253209926645
0.00031253209926645
0.00031253209926645
0.00031253209926645
0.00031253209926645
0.00031253209926645
0.00031253209926645
0.00031253209926645
0.00031253209926645
0.00031253209926645
0.00031253209926645
0.00031253209926645
0.00031253209926645
0.00031253209926645
0.00031253209926645
0.00031253209926645
0.00031253209926645
0.00031253209926645
0.00031253209926645
0.00031253209926645
0.00031253209926645
0.00031253209926645
0.00031253209926645
0.00031253209926645
0.00031253209926645
0.00031253209926645
0.00031253209926645
0.00031253209926645
0.00031253209926645
0.00031253209926645
0.00031253209926645
0.00031253209926645
0.00031253209926645
0.00031253209926645
0.00031253209926645
0.00031253209926645
0.00031253209926645
0.00031253209926645
0.00031253209926645
0.00031253209926645
0.00031253209926645
0.00031253209926645
0.00031253209926645
0.00031253209926645
0.00031253209926645
0.00031253209926645
0.00031253209926645
0.00031253209926645
0.00031253209926645
0.00031253209926645
0.00031253209926645
0.00031253209926645
0.00031253209926645
0.00031253209926645
0.00031253209926645
0.00031253209926645
0.00031253209926645
0.00031253209926645
0.00031253209926645
0.00031253209926645
0.00031253209926645
0.00031253209926645
0.00031253209926645
0.00031253209926645
0.00031253209926645
0.00031253209926645
0.00031253209926645
0.00031253209926645
0.00031253209926645
0.000363955212068874
0.00031253209926645
0.00031253209926645
0.00031253209926645
0.00031253209926645
0.00031253209926645
0.00031253209926645
0.00031253209926645
0.00031253209926645
0.00031253209926645
0.00031253209926645
0.00031253209926645
0.000803644754692208
0.000803644754692208
0.000803644754692208
0.000803644754692208
0.000803644754692208
0.000803644754692208
0.000803644754692208
0.000803644754692208
0.000803644754692208
0.000803644754692208
0.000803644754692208
0.000803644754692208
0.000803644754692208
0.000803644754692208
0.000803644754692208
0.000803644754692208
0.000803644754692208
0.000803644754692208
0.000803644754692208
0.000803644754692208
0.000803644754692208
0.000803644754692208
0.000803644754692208
0.000803644754692208
0.000803644754692208
0.000803644754692208
0.000803644754692208
0.000803644754692208
0.000803644754692208
0.000803644754692208
0.000803644754692208
0.000803644754692208
0.000803644754692208
0.000803644754692208
0.000803644754692208
0.000803644754692208
0.000803644754692208
0.000803644754692208
0.000803644754692208
0.000803644754692208
0.00024496381604442
0.00024496381604442
0.000803644754692208
0.000803644754692208
0.000803644754692208
0.000803644754692208
0.000803644754692208
0.000803644754692208
0.000803644754692208
0.000803644754692208
0.000803644754692208
0.000803644754692208
0.000803644754692208
0.000803644754692208
0.000803644754692208
0.000803644754692208
0.000803644754692208
0.000803644754692208
0.000443911642859943
0.000803644754692208
0.000803644754692208
0.000803644754692208
0.000803644754692208
0.000803644754692208
0.000803644754692208
0.000803644754692208
0.000803644754692208
0.000803644754692208
0.000683391415445597
0.000683391415445597
0.000803644754692208
0.000803644754692208
0.000803644754692208
0.000803644754692208
0.000803644754692208
0.000803644754692208
0.000803644754692208
0.000803644754692208
0.000803644754692208
0.000803644754692208
0.000803644754692208
0.000803644754692208
0.000803644754692208
0.000803644754692208
0.00024496381604442
0.000803644754692208
0.000803644754692208
0.000803644754692208
0.000803644754692208
0.000803644754692208
0.000803644754692208
0.000803644754692208
0.000803644754692208
0.000803644754692208
0.000803644754692208
0.000803644754692208
0.000803644754692208
0.000803644754692208
0.000803644754692208
0.000803644754692208
0.000803644754692208
0.000683391415445597
0.000683391415445597
0.000683391415445597
0.000683391415445597
0.000683391415445597
0.000683391415445597
0.000683391415445597
0.000683391415445597
0.000683391415445597
0.000683391415445597
0.000683391415445597
0.000683391415445597
0.000683391415445597
0.000683391415445597
0.000683391415445597
0.000683391415445597
0.000683391415445597
0.000683391415445597
0.000683391415445597
0.000683391415445597
0.000683391415445597
0.000683391415445597
0.000683391415445597
0.000683391415445597
0.000683391415445597
0.000683391415445597
0.000683391415445597
0.000683391415445597
0.000683391415445597
0.000683391415445597
0.000683391415445597
0.000683391415445597
0.000683391415445597
0.000683391415445597
0.000683391415445597
0.000683391415445597
0.000683391415445597
0.000683391415445597
0.000683391415445597
0.000683391415445597
0.000683391415445597
0.000683391415445597
0.000683391415445597
0.000683391415445597
0.000683391415445597
0.000683391415445597
0.000683391415445597
0.000683391415445597
0.000683391415445597
0.000683391415445597
0.000683391415445597
0.000683391415445597
0.000683391415445597
0.000683391415445597
0.000683391415445597
0.000683391415445597
0.000683391415445597
0.000683391415445597
0.000683391415445597
0.000683391415445597
0.000133336600976381
0.000133336600976381
0.000133336600976381
0.000133336600976381
0.000133336600976381
0.000133336600976381
0.000133336600976381
0.000133336600976381
0.000133336600976381
0.000133336600976381
0.000133336600976381
0.000133336600976381
0.000133336600976381
0.000133336600976381
0.000133336600976381
0.000133336600976381
0.000133336600976381
0.000133336600976381
0.000133336600976381
0.000133336600976381
0.000133336600976381
0.000133336600976381
0.000133336600976381
0.000133336600976381
0.000133336600976381
0.000620546471317825
0.000620546471317825
0.000620546471317825
0.000620546471317825
0.000620546471317825
0.000620546471317825
0.000620546471317825
0.000620546471317825
0.000620546471317825
0.000620546471317825
0.000216385589104333
0.000620546471317825
0.000620546471317825
0.000620546471317825
0.000620546471317825
0.000620546471317825
0.000620546471317825
0.000620546471317825
0.000620546471317825
0.000620546471317825
0.000620546471317825
-0.000393557722203865
0.000620546471317825
0.000368193700262503
0.000620546471317825
0.000620546471317825
0.000620546471317825
0.000620546471317825
0.000620546471317825
0.000620546471317825
0.000620546471317825
0.000620546471317825
0.000620546471317825
0.000620546471317825
0.000620546471317825
0.000620546471317825
0.000620546471317825
0.000620546471317825
0.000620546471317825
0.000620546471317825
0.000620546471317825
0.000620546471317825
0.000620546471317825
0.00024310715830371
-0.000186399628130219
3.66315412037481e-05
3.66315412037481e-05
0.00024310715830371
0.00024310715830371
0.00024310715830371
0.00024310715830371
0.00024310715830371
0.00024310715830371
0.00024310715830371
0.00024310715830371
0.00024310715830371
0.00024310715830371
0.00024310715830371
0.00024310715830371
0.000620546471317825
0.000620546471317825
0.000368193700262503
0.000620546471317825
0.000620546471317825
0.000620546471317825
0.000620546471317825
0.000620546471317825
0.000620546471317825
0.000620546471317825
0.000620546471317825
0.000620546471317825
0.000620546471317825
0.000620546471317825
0.000620546471317825
0.000620546471317825
0.000620546471317825
0.000620546471317825
0.000394227079087825
0.000394227079087825
0.000394227079087825
0.000949699995565069
0.00118230129815573
0.00118230129815573
0.000620546471317825
0.000620546471317825
0.000620546471317825
0.000620546471317825
0.000620546471317825
0.000620546471317825
0.000620546471317825
0.000620546471317825
0.000620546471317825
0.000620546471317825
0.000620546471317825
0.000620546471317825
0.000620546471317825
0.000620546471317825
0.000620546471317825
0.000620546471317825
0.000620546471317825
0.000598548347025675
0.000598548347025675
0.000598548347025675
0.000598548347025675
0.000598548347025675
0.000598548347025675
0.000598548347025675
0.000598548347025675
-0.00152229881510261
-0.00152229881510261
-0.00152229881510261
-0.00152229881510261
-0.00152229881510261
-0.00152229881510261
-0.00152229881510261
-0.00152229881510261
-0.00152229881510261
-0.00152229881510261
-0.00152229881510261
-0.00152229881510261
-0.00152229881510261
-0.00152229881510261
-0.00152229881510261
-0.00152229881510261
-0.00152229881510261
-0.00152229881510261
-0.00148790367539276
-0.00148790367539276
-0.00148790367539276
-0.00148790367539276
-0.00148790367539276
-0.00148790367539276
-0.00148790367539276
-0.00148790367539276
-0.00148790367539276
-0.00148790367539276
-0.00148790367539276
-0.00148790367539276
-0.00148790367539276
-0.00148790367539276
-0.00148790367539276
-0.00148790367539276
-0.00148790367539276
-0.00148790367539276
-0.00148790367539276
-0.00148790367539276
-0.00148790367539276
-0.00148790367539276
-0.00148790367539276
-0.00148790367539276
-0.00148790367539276
-0.00148790367539276
-0.00148790367539276
-0.00148790367539276
-0.00148790367539276
-0.00148790367539276
-0.00148790367539276
-0.00148790367539276
-0.00148790367539276
-0.00148790367539276
-0.00122781939230924
-0.00148790367539276
-0.00148790367539276
-0.00148790367539276
-0.00148790367539276
-0.00148790367539276
-0.00148790367539276
-0.00148790367539276
-0.00148790367539276
-0.00148790367539276
-0.00148790367539276
-0.00148790367539276
-0.00148790367539276
-0.00148790367539276
-0.00148790367539276
-0.00148790367539276
-0.00148790367539276
-0.00148790367539276
-0.00148790367539276
-0.00148790367539276
-0.00157821585214605
-0.00157821585214605
-0.00157821585214605
-0.00157821585214605
-0.00157821585214605
-0.00107297932513862
-0.00107297932513862
-0.00107297932513862
-0.00107297932513862
-0.00107297932513862
-0.00107297932513862
-0.00107297932513862
-0.00107297932513862
-0.00107297932513862
-0.00107297932513862
-0.00107297932513862
-0.00107297932513862
-0.00107297932513862
-0.00107297932513862
-0.00107297932513862
-0.00107297932513862
-0.00107297932513862
-0.00107297932513862
-0.00107297932513862
-0.00107297932513862
-0.00107297932513862
-0.00107297932513862
-0.00107297932513862
-0.00107297932513862
-0.00107297932513862
-0.00107297932513862
-0.00107297932513862
-0.00107297932513862
-0.00107297932513862
-0.00107297932513862
-0.00107297932513862
-0.00107297932513862
-0.00107297932513862
-0.00107297932513862
-0.00107297932513862
-0.00107297932513862
-0.00107297932513862
-0.00107297932513862
-0.00107297932513862
-0.00107297932513862
-0.00107297932513862
-0.00107297932513862
-0.00107297932513862
-0.00107297932513862
-0.00107297932513862
-0.00107297932513862
-0.00107297932513862
-0.00107297932513862
-0.00107297932513862
-0.00107297932513862
-0.00107297932513862
-0.00107297932513862
-0.00107297932513862
-0.00107297932513862
-0.00107297932513862
-0.00107297932513862
-0.00107297932513862
-0.00107297932513862
-0.00107297932513862
-0.00107297932513862
-0.00107297932513862
-0.00107297932513862
-0.00107297932513862
-0.00107297932513862
-0.00107297932513862
-0.00107297932513862
-0.00107297932513862
-0.00126977164569428
-0.00126977164569428
-0.00126977164569428
-0.00107297932513862
-0.00125613559731126
-0.00125613559731126
-0.00125613559731126
-0.00125613559731126
-0.00125613559731126
-0.00125613559731126
-0.00125613559731126
-0.00107297932513862
-0.00107297932513862
-0.00107297932513862
-0.00107297932513862
-0.00107297932513862
-0.00107297932513862
-0.00107297932513862
-0.00107297932513862
-0.00107297932513862
-0.00107297932513862
-0.00107297932513862
-0.00107297932513862
-0.00107297932513862
-0.00107297932513862
-0.00107297932513862
-0.00107297932513862
-0.00107297932513862
-0.00107297932513862
-0.00107297932513862
-0.00107297932513862
-0.00107297932513862
-0.00107297932513862
-0.00107297932513862
-0.00107297932513862
-0.00107297932513862
-0.00107297932513862
-0.00107297932513862
-0.00107297932513862
-0.000460905478441565
-0.000460905478441565
-0.000460905478441565
-0.000460905478441565
-0.000460905478441565
-0.000460905478441565
-0.000460905478441565
-0.000460905478441565
-0.000460905478441565
-0.000460905478441565
-0.000460905478441565
-0.000460905478441565
-0.000460905478441565
-0.000460905478441565
-0.000460905478441565
-0.000198878333151481
-0.000198878333151481
-0.000198878333151481
-0.000198878333151481
-0.000198878333151481
-0.000198878333151481
-0.000198878333151481
-0.000198878333151481
-0.000198878333151481
-0.000198878333151481
-0.000198878333151481
-0.000198878333151481
-0.000198878333151481
-0.000198878333151481
-0.000198878333151481
-0.000198878333151481
-0.000198878333151481
-0.000198878333151481
-0.000198878333151481
-0.000198878333151481
-0.000198878333151481
-0.000198878333151481
-0.000198878333151481
-0.000198878333151481
-0.000185611401695483
-0.000185611401695483
-0.000185611401695483
-0.000185611401695483
-0.000185611401695483
0.00122265061238785
0.00122265061238785
0.00148847594321186
0.00148847594321186
0.00148847594321186
0.00148847594321186
0.00148847594321186
0.00145966319642244
0.00145966319642244
0.00145966319642244
0.00145966319642244
0.00145966319642244
0.00145966319642244
0.00145966319642244
0.00145966319642244
0.00145966319642244
0.00145966319642244
0.00145966319642244
0.00145966319642244
0.00145966319642244
0.00145966319642244
0.00145966319642244
0.00145966319642244
0.00145966319642244
0.00145966319642244
0.00145966319642244
0.00145966319642244
0.00145966319642244
0.00145966319642244
0.00145966319642244
0.00145966319642244
0.00145966319642244
0.00145966319642244
0.00145966319642244
0.00145966319642244
0.00145966319642244
0.00145966319642244
0.00145966319642244
0.00145966319642244
0.00145966319642244
0.00145966319642244
0.00145966319642244
0.00145966319642244
0.0011867487406314
0.0011867487406314
0.0011867487406314
0.0011867487406314
0.0011867487406314
0.0011867487406314
0.0011867487406314
0.0011867487406314
0.000742698346035685
0.000742698346035685
0.000742698346035685
0.000742698346035685
0.000742698346035685
0.000742698346035685
0.000742698346035685
0.000742698346035685
0.000742698346035685
0.000742698346035685
0.000742698346035685
0.000742698346035685
0.000742698346035685
0.000742698346035685
0.000742698346035685
0.000742698346035685
0.000742698346035685
0.000742698346035685
0.000742698346035685
0.000742698346035685
0.000742698346035685
0.000742698346035685
0.000742698346035685
0.000742698346035685
0.000742698346035685
0.000742698346035685
0.000742698346035685
0.000742698346035685
0.000742698346035685
0.000742698346035685
0.000742698346035685
0.000742698346035685
0.000742698346035685
0.000742698346035685
0.000742698346035685
0.000742698346035685
0.000742698346035685
0.000742698346035685
0.000742698346035685
0.000742698346035685
0.000742698346035685
-9.56590330953213e-06
-9.56590330953213e-06
-9.56590330953213e-06
-9.56590330953213e-06
-9.56590330953213e-06
-9.56590330953213e-06
-9.56590330953213e-06
-9.56590330953213e-06
-0.000936191437206675
-9.56590330953213e-06
-9.56590330953213e-06
-9.56590330953213e-06
-9.56590330953213e-06
-9.56590330953213e-06
-9.56590330953213e-06
-9.56590330953213e-06
-9.56590330953213e-06
-9.56590330953213e-06
-9.56590330953213e-06
-9.56590330953213e-06
-9.56590330953213e-06
-9.56590330953213e-06
-9.56590330953213e-06
-9.56590330953213e-06
-9.56590330953213e-06
-9.56590330953213e-06
-9.56590330953213e-06
-9.56590330953213e-06
-9.56590330953213e-06
-9.56590330953213e-06
-9.56590330953213e-06
-9.56590330953213e-06
-9.56590330953213e-06
-9.56590330953213e-06
-9.56590330953213e-06
-9.56590330953213e-06
-9.56590330953213e-06
-9.56590330953213e-06
-9.56590330953213e-06
-9.56590330953213e-06
-9.56590330953213e-06
-9.56590330953213e-06
-9.56590330953213e-06
-9.56590330953213e-06
-9.56590330953213e-06
-9.56590330953213e-06
-9.56590330953213e-06
-9.56590330953213e-06
-9.56590330953213e-06
-9.56590330953213e-06
-9.56590330953213e-06
-9.56590330953213e-06
-9.56590330953213e-06
-9.56590330953213e-06
-9.56590330953213e-06
-9.56590330953213e-06
-9.56590330953213e-06
-9.56590330953213e-06
-9.56590330953213e-06
-9.56590330953213e-06
-9.56590330953213e-06
-9.56590330953213e-06
-9.56590330953213e-06
-9.56590330953213e-06
-9.56590330953213e-06
-9.56590330953213e-06
-9.56590330953213e-06
-9.56590330953213e-06
-9.56590330953213e-06
-9.56590330953213e-06
-9.56590330953213e-06
-9.56590330953213e-06
-9.56590330953213e-06
-0.000287157254739728
-0.000287157254739728
-0.000287157254739728
-0.000287157254739728
-0.000287157254739728
-0.000287157254739728
-0.000287157254739728
-0.000287157254739728
-0.000287157254739728
-0.000287157254739728
-0.000287157254739728
-0.000287157254739728
-0.000287157254739728
-0.000287157254739728
-0.000287157254739728
-0.000287157254739728
-0.000287157254739728
-0.000287157254739728
-0.000287157254739728
-0.000287157254739728
-0.000287157254739728
-0.000287157254739728
-0.000287157254739728
-0.000287157254739728
-0.000287157254739728
-0.000287157254739728
-0.000287157254739728
-0.000287157254739728
-0.000287157254739728
-0.000287157254739728
-0.000287157254739728
-0.000287157254739728
-0.000287157254739728
-0.000287157254739728
-0.000287157254739728
-0.000287157254739728
-0.000287157254739728
0.000215279363582626
0.000215279363582626
0.000215279363582626
0.000215279363582626
0.000215279363582626
0.000215279363582626
0.000215279363582626
0.000743558188850405
0.000743558188850405
0.000743558188850405
0.000743558188850405
0.000743558188850405
0.000743558188850405
0.000743558188850405
0.000743558188850405
0.00131449931799055
0.00131449931799055
0.00131449931799055
0.00131449931799055
0.00131449931799055
0.00131449931799055
0.00131449931799055
0.00131449931799055
0.00131449931799055
0.00131449931799055
0.00131449931799055
0.00131449931799055
0.00131449931799055
0.00131449931799055
0.00131449931799055
0.00131449931799055
0.00131449931799055
0.00131449931799055
0.00131449931799055
0.00131449931799055
0.00131449931799055
0.00131449931799055
0.00131449931799055
0.00131449931799055
0.00131449931799055
0.00131449931799055
0.00131449931799055
0.00131449931799055
0.00131449931799055
0.00131449931799055
0.00131449931799055
0.00131449931799055
0.00131449931799055
0.00131449931799055
0.00131449931799055
0.00131449931799055
0.00131449931799055
0.00131449931799055
0.00131449931799055
0.000187455355138823
0.000187455355138823
0.000811072550157469
0.000187455355138823
0.000187455355138823
0.000165101612699611
0.000165101612699611
0.000165101612699611
0.000165101612699611
0.000165101612699611
0.000187455355138823
0.000187455355138823
0.000187455355138823
0.000187455355138823
0.000187455355138823
0.000187455355138823
0.000187455355138823
0.000187455355138823
0.000187455355138823
0.000187455355138823
0.000187455355138823
0.000187455355138823
0.000187455355138823
0.000187455355138823
0.000187455355138823
0.000187455355138823
0.000187455355138823
0.000187455355138823
0.000187455355138823
0.000165101612699611
0.000187455355138823
0.000187455355138823
0.000187455355138823
0.000187455355138823
0.000187455355138823
0.000187455355138823
0.000187455355138823
0.000187455355138823
0.000187455355138823
0.000187455355138823
0.000187455355138823
0.000165101612699611
0.000187455355138823
0.000187455355138823
0.000187455355138823
0.000187455355138823
0.000187455355138823
0.000187455355138823
0.000187455355138823
0.000187455355138823
0.000187455355138823
0.000187455355138823
0.000187455355138823
0.000187455355138823
0.000187455355138823
0.000187455355138823
0.000187455355138823
0.000187455355138823
0.000187455355138823
0.000187455355138823
0.000187455355138823
0.000187455355138823
0.000187455355138823
0.000187455355138823
0.000137946544951628
0.000137946544951628
0.000137946544951628
0.000137946544951628
0.000137946544951628
0.000137946544951628
0.000137946544951628
0.000187455355138823
0.000137946544951628
0.000137946544951628
0.000137946544951628
0.000137946544951628
0.000137946544951628
0.000137946544951628
0.000137946544951628
0.000137946544951628
0.000137946544951628
0.000137946544951628
0.000137946544951628
0.000137946544951628
0.000137946544951628
0.000137946544951628
0.000137946544951628
0.000137946544951628
0.000137946544951628
0.000137946544951628
0.000137946544951628
0.000137946544951628
0.000137946544951628
0.000137946544951628
0.000137946544951628
0.000137946544951628
0.000834427095402409
0.000834427095402409
0.000834427095402409
0.000834427095402409
0.000834427095402409
0.000137946544951628
0.000137946544951628
0.000137946544951628
0.000137946544951628
0.000786520791451299
0.000786520791451299
0.000786520791451299
0.000786520791451299
0.000786520791451299
0.000786520791451299
0.000786520791451299
0.000786520791451299
0.00141767528974788
0.00136251769829161
0.00136251769829161
0.00011611519328582
0.000137946544951628
0.000137946544951628
0.000137946544951628
0.000137946544951628
0.000137946544951628
0.000872016841038245
0.000872016841038245
0.000872016841038245
0.000201367295310808
0.000201367295310808
0.000201367295310808
0.000201367295310808
